%YAML:1.0
opencv_ml_svm:
   format: 3
   svmType: C_SVC
   kernel:
      type: LINEAR
   C: 1.
   term_criteria: { epsilon:1.1920928955078125e-07, iterations:1000 }
   var_count: 6
   class_count: 6
   class_labels: !!opencv-matrix
      rows: 6
      cols: 1
      dt: i
      data: [ 0, 1, 2, 3, 4, 5 ]
   sv_total: 15
   support_vectors:
      - [ -2.63666455e-03, 1.79934166e-02, 2.60027545e-03,
          -1.20269565e-03, 4.67647659e-03, 2.60027545e-03 ]
      - [ -4.20312444e-03, 5.11205569e-03, 5.20353671e-03,
          -5.07212523e-03, 2.80058151e-03, 2.18668138e-03 ]
      - [ -1.94784638e-03, 6.14744704e-03, 9.45978984e-03,
          -1.60001323e-03, 6.70235325e-03, 6.33817725e-03 ]
      - [ -7.41802948e-03, 4.28334018e-03, 2.35468638e-03,
          -7.08146777e-04, 1.11661702e-02, 2.35468638e-03 ]
      - [ -2.68555433e-03, 1.40591376e-02, -7.02019129e-03,
          3.73777613e-04, 3.91009467e-04, -7.02019129e-03 ]
      - [ -9.57466662e-03, -1.66639488e-03, 1.21463202e-02,
          -6.19353552e-04, 8.39815009e-03, 6.92665530e-03 ]
      - [ 1.16097872e-04, -9.58557427e-03, 1.20661110e-02,
          -8.51480349e-04, 9.55805462e-03, 1.00758625e-02 ]
      - [ -5.84249245e-03, -6.03248738e-03, 6.94791274e-03,
          -7.69411330e-04, 1.36268912e-02, 6.94791274e-03 ]
      - [ 1.64188084e-03, -5.99338626e-03, -3.92036475e-02,
          8.34964274e-04, -5.00211213e-03, -3.92036475e-02 ]
      - [ 1.57837179e-02, -2.02728529e-02, 1.33162993e-03,
          1.78672932e-02, -2.67181732e-03, 4.85693599e-04 ]
      - [ 7.57765770e-02, -4.76259179e-02, -6.27372712e-02,
          -6.21793605e-03, 2.74655707e-02, 3.73541899e-02 ]
      - [ 3.00102332e-03, 3.33209056e-04, -7.42837600e-03,
          -1.10717512e-04, -3.18047684e-03, -4.88590263e-03 ]
      - [ -3.75841483e-02, 7.85838366e-02, -4.72272597e-02,
          -2.53667153e-04, 2.34994479e-02, 8.48883949e-03 ]
      - [ -5.33182101e-05, 2.01858836e-03, -6.48405403e-03,
          2.30462047e-05, -3.90975131e-03, -5.86157944e-03 ]
      - [ 3.76200490e-03, 3.84748355e-03, -4.56291391e-03,
          -3.02899280e-04, -6.95759850e-03, -4.56291391e-03 ]
   uncompressed_sv_total: 50
   uncompressed_support_vectors:
      - [ 244., 231., 233., 125., 14., 244. ]
      - [ 122., 53., 34., 113., 184., 122. ]
      - [ 174., 76., 52., 114., 179., 174. ]
      - [ 75., 191., 192., 30., 155., 192. ]
      - [ 75., 192., 191., 30., 155., 192. ]
      - [ 145., 95., 77., 112., 120., 145. ]
      - [ 125., 83., 64., 111., 124., 125. ]
      - [ 178., 90., 74., 115., 149., 178. ]
      - [ 172., 96., 74., 113., 145., 172. ]
      - [ 94., 125., 62., 75., 129., 125. ]
      - [ 92., 123., 60., 75., 131., 123. ]
      - [ 88., 93., 255., 1., 167., 255. ]
      - [ 82., 92., 253., 2., 172., 253. ]
      - [ 83., 85., 250., 0., 170., 250. ]
      - [ 58., 61., 152., 1., 158., 152. ]
      - [ 107., 80., 90., 131., 64., 107. ]
      - [ 83., 140., 49., 71., 166., 140. ]
      - [ 78., 70., 225., 178., 176., 225. ]
      - [ 77., 67., 227., 178., 180., 227. ]
      - [ 95., 90., 253., 179., 164., 253. ]
      - [ 79., 77., 173., 179., 141., 173. ]
      - [ 82., 78., 174., 179., 141., 174. ]
      - [ 80., 80., 170., 0., 135., 170. ]
      - [ 76., 81., 174., 2., 144., 174. ]
      - [ 133., 91., 114., 136., 81., 133. ]
      - [ 137., 101., 117., 133., 67., 137. ]
      - [ 136., 99., 119., 136., 69., 136. ]
      - [ 203., 216., 232., 13., 32., 232. ]
      - [ 205., 217., 235., 12., 33., 235. ]
      - [ 204., 212., 235., 8., 34., 235. ]
      - [ 63., 179., 202., 25., 175., 202. ]
      - [ 62., 177., 197., 26., 175., 197. ]
      - [ 77., 100., 86., 48., 59., 100. ]
      - [ 76., 99., 84., 50., 59., 99. ]
      - [ 73., 97., 87., 43., 63., 97. ]
      - [ 72., 96., 86., 43., 64., 96. ]
      - [ 222., 234., 244., 16., 23., 244. ]
      - [ 76., 121., 112., 36., 95., 121. ]
      - [ 78., 124., 112., 38., 95., 124. ]
      - [ 86., 129., 116., 39., 85., 129. ]
      - [ 80., 126., 113., 38., 93., 126. ]
      - [ 88., 226., 244., 27., 163., 244. ]
      - [ 61., 184., 186., 30., 171., 186. ]
      - [ 62., 47., 252., 178., 207., 252. ]
      - [ 69., 76., 79., 21., 32., 79. ]
      - [ 44., 36., 53., 166., 82., 53. ]
      - [ 46., 36., 52., 161., 78., 52. ]
      - [ 79., 76., 252., 179., 178., 252. ]
      - [ 39., 36., 51., 174., 75., 51. ]
      - [ 39., 39., 53., 0., 67., 53. ]
   decision_functions:
      -
         sv_count: 1
         rho: 3.8329833319493622e+00
         alpha: [ 1. ]
         index: [ 0 ]
      -
         sv_count: 1
         rho: 1.3619250315712457e+00
         alpha: [ 1. ]
         index: [ 1 ]
      -
         sv_count: 1
         rho: 4.0488355824112450e+00
         alpha: [ 1. ]
         index: [ 2 ]
      -
         sv_count: 1
         rho: 1.8754773136493033e+00
         alpha: [ 1. ]
         index: [ 3 ]
      -
         sv_count: 1
         rho: -1.4109903749200765e+00
         alpha: [ 1. ]
         index: [ 4 ]
      -
         sv_count: 1
         rho: 2.4768711108965888e+00
         alpha: [ 1. ]
         index: [ 5 ]
      -
         sv_count: 1
         rho: 3.2969147495553441e+00
         alpha: [ 1. ]
         index: [ 6 ]
      -
         sv_count: 1
         rho: 2.2519222362463704e+00
         alpha: [ 1. ]
         index: [ 7 ]
      -
         sv_count: 1
         rho: -1.9825344893951279e+01
         alpha: [ 1. ]
         index: [ 8 ]
      -
         sv_count: 1
         rho: 1.0882180461956650e+00
         alpha: [ 1. ]
         index: [ 9 ]
      -
         sv_count: 1
         rho: 2.5922206440122606e+00
         alpha: [ 1. ]
         index: [ 10 ]
      -
         sv_count: 1
         rho: -2.3418431150322041e+00
         alpha: [ 1. ]
         index: [ 11 ]
      -
         sv_count: 1
         rho: 2.1000429425095941e+00
         alpha: [ 1. ]
         index: [ 12 ]
      -
         sv_count: 1
         rho: -2.5839114837995476e+00
         alpha: [ 1. ]
         index: [ 13 ]
      -
         sv_count: 1
         rho: -1.8004356392778422e+00
         alpha: [ 1. ]
         index: [ 14 ]
