%YAML:1.0
opencv_ml_svm:
   format: 3
   svmType: C_SVC
   kernel:
      type: LINEAR
   C: 1.
   term_criteria: { epsilon:1.1920928955078125e-07, iterations:1000 }
   var_count: 6
   class_count: 6
   class_labels: !!opencv-matrix
      rows: 6
      cols: 1
      dt: i
      data: [ 0, 1, 2, 3, 4, 5 ]
   sv_total: 15
   support_vectors:
      - [ -9.76468623e-03, 3.85904014e-02, -3.82824196e-03,
          -1.28969410e-03, 1.38375051e-02, -3.82824196e-03 ]
      - [ -1.26221972e-02, 9.36707575e-03, 9.28228535e-03,
          -3.27716488e-03, 1.32751344e-02, 3.35051981e-03 ]
      - [ -1.34720607e-02, 4.93732747e-03, 2.51614675e-02,
          -7.94404745e-03, 1.73515063e-02, 5.25426911e-03 ]
      - [ -2.48135459e-02, 2.67438237e-02, 7.15894997e-03,
          6.42128894e-03, 1.92211606e-02, 6.26129471e-03 ]
      - [ 3.01658339e-03, 6.10477626e-02, -2.30487380e-02,
          1.82994604e-02, 8.80322885e-03, -2.30487380e-02 ]
      - [ -1.82667710e-02, -8.62165261e-03, 1.86788291e-02,
          -9.94485244e-03, 1.33800404e-02, 7.52378255e-03 ]
      - [ -1.75001156e-02, -4.36461680e-02, 4.28310484e-02,
          -2.76267137e-02, 4.50348854e-02, 1.97624899e-02 ]
      - [ -3.51994820e-02, 2.20171213e-02, 5.44914789e-03,
          2.35667289e-03, -4.14359150e-03, 5.20194462e-03 ]
      - [ 7.76232406e-03, -1.18227834e-02, 6.66800560e-03,
          1.29591231e-03, -3.27407080e-03, 6.66800560e-03 ]
      - [ 2.02951357e-01, -2.23081082e-01, 7.40989074e-02,
          -7.52587710e-03, -1.47759942e-02, -4.66543622e-02 ]
      - [ -1.36227105e-02, -3.68948118e-03, -2.18232591e-02,
          -5.73299360e-03, -9.73404292e-03, 4.01222184e-02 ]
      - [ 1.43707935e-02, 5.47989691e-03, -1.50995674e-02,
          2.79446933e-02, -2.43264362e-02, -5.88635681e-03 ]
      - [ -3.15629333e-01, 3.07578623e-01, -1.66475266e-01,
          5.00602759e-02, -9.74097326e-02, -3.49066406e-02 ]
      - [ 8.90118303e-04, 8.75941589e-02, -2.03985237e-02,
          1.00257844e-01, -3.43414657e-02, -1.89453773e-02 ]
      - [ 2.09507979e-02, 1.34061044e-02, -1.31141795e-02,
          1.43063692e-02, 1.30447848e-02, -1.31141795e-02 ]
   decision_functions:
      -
         sv_count: 1
         rho: 4.2694016107853878e+00
         alpha: [ 1. ]
         index: [ 0 ]
      -
         sv_count: 1
         rho: 2.9942193483549526e+00
         alpha: [ 1. ]
         index: [ 1 ]
      -
         sv_count: 1
         rho: 5.2537113907269699e+00
         alpha: [ 1. ]
         index: [ 2 ]
      -
         sv_count: 1
         rho: 5.8606240598341595e+00
         alpha: [ 1. ]
         index: [ 3 ]
      -
         sv_count: 1
         rho: 1.9111131751786328e+00
         alpha: [ 1. ]
         index: [ 4 ]
      -
         sv_count: 1
         rho: 1.7667839419083049e+00
         alpha: [ 1. ]
         index: [ 5 ]
      -
         sv_count: 1
         rho: 7.0663342295223526e+00
         alpha: [ 1. ]
         index: [ 6 ]
      -
         sv_count: 1
         rho: 7.4049729038412648e-01
         alpha: [ 1. ]
         index: [ 7 ]
      -
         sv_count: 1
         rho: 1.6000919325544016e+00
         alpha: [ 1. ]
         index: [ 8 ]
      -
         sv_count: 1
         rho: -2.4325690143796348e+00
         alpha: [ 1. ]
         index: [ 9 ]
      -
         sv_count: 1
         rho: -8.5696007969452166e-03
         alpha: [ 1. ]
         index: [ 10 ]
      -
         sv_count: 1
         rho: -2.0581019137644767e+00
         alpha: [ 1. ]
         index: [ 11 ]
      -
         sv_count: 1
         rho: -2.2349892011722925e+01
         alpha: [ 1. ]
         index: [ 12 ]
      -
         sv_count: 1
         rho: -3.6182766755429213e-01
         alpha: [ 1. ]
         index: [ 13 ]
      -
         sv_count: 1
         rho: 4.2851312232563049e-01
         alpha: [ 1. ]
         index: [ 14 ]
